<?xml version="1.0"?>
<opencv_storage>
<cascade>
  <stageType>BOOST</stageType>
  <featureType>LBP</featureType>
  <height>20</height>
  <width>20</width>
  <stageParams>
    <boostType>GAB</boostType>
    <minHitRate>9.9500000476837158e-01</minHitRate>
    <maxFalseAlarm>5.0000000000000000e-01</maxFalseAlarm>
    <weightTrimRate>9.4999999999999996e-01</weightTrimRate>
    <maxDepth>1</maxDepth>
    <maxWeakCount>100</maxWeakCount></stageParams>
  <featureParams>
    <maxCatCount>256</maxCatCount>
    <featSize>1</featSize></featureParams>
  <stageNum>20</stageNum>
  <stages>
    <!-- stage 0 -->
    <_>
      <maxWeakCount>3</maxWeakCount>
      <stageThreshold>-8.5271102190017700e-01</stageThreshold>
      <weakClassifiers>
        <_>
          <internalNodes>
            0 -1 60 -1 2147448799 -2143038465 1910198911 -1684028417
            -1702145909 1073709055 1073687551</internalNodes>
          <leafValues>
            -7.8584176301956177e-01 8.4367632865905762e-01</leafValues></_>
        <_>
          <internalNodes>
            0 -1 50 738669439 1058921855 -137109153 2143001943 803887999
            -6554657 -554713089 -4457569</internalNodes>
          <leafValues>
            -7.0660650730133057e-01 7.4301981925964355e-01</leafValues></_>
        <_>
          <internalNodes>
            0 -1 2 2076180479 -541093769 -754071221 -1142990501
            713766047 -1685253941 579484607 268380667</internalNodes>
          <leafValues>
            -8.0988907814025879e-01 6.4162349700927734e-01</leafValues></_></weakClassifiers></_>
    <!-- stage 1 -->
    <_>
      <maxWeakCount>4</maxWeakCount>
      <stageThreshold>-1.5379710197448730e+00</stageThreshold>
      <weakClassifiers>
        <_>
          <internalNodes>
            0 -1 19 201273215 1073692671 1006582655 2147483647
            2147446655 -1 -1 -1</internalNodes>
          <leafValues>
            -7.4384856224060059e-01 7.5927329063415527e-01</leafValues></_>
        <_>
          <internalNodes>
            0 -1 5 -10747905 -2944767 -880688673 801070399 -602686481
            797655042 -1999951425 92758831</internalNodes>
          <leafValues>
            -7.3849713802337646e-01 6.0165977478027344e-01</leafValues></_>
        <_>
          <internalNodes>
            0 -1 109 603796759 664531382 2014436799 -1086980611
            2041281855 -348241 -268705793 -1025</internalNodes>
          <leafValues>
            -7.2254979610443115e-01 5.9908902645111084e-01</leafValues></_>
        <_>
          <internalNodes>
            0 -1 6 -4458633 -411913831 -249114117 -2106380 -1079871195
            -2129158 1905746788 -9022192</internalNodes>
          <leafValues>
            -6.7323249578475952e-01 5.8689248561859131e-01</leafValues></_></weakClassifiers></_>
    <!-- stage 2 -->
    <_>
      <maxWeakCount>3</maxWeakCount>
      <stageThreshold>-7.3039799928665161e-01</stageThreshold>
      <weakClassifiers>
        <_>
          <internalNodes>
            0 -1 33 796859231 -7087649 -240919045 -42346153 -352630741
            -7092717 -825050753 -1</internalNodes>
          <leafValues>
            -6.8875378370285034e-01 6.6469001770019531e-01</leafValues></_>
        <_>
          <internalNodes>
            0 -1 16 -4456459 -4259849 -1 -32779 -327943 -212993
            -37847041 -4230028</internalNodes>
          <leafValues>
            -5.8727371692657471e-01 7.0918101072311401e-01</leafValues></_>
        <_>
          <internalNodes>
            0 -1 109 795817239 -1348479557 -216277537 -1073883727
            2074210111 -1091860741 -353502601 -2102789</internalNodes>
          <leafValues>
            -7.2889429330825806e-01 5.4562950134277344e-01</leafValues></_></weakClassifiers></_>
    <!-- stage 3 -->
    <_>
      <maxWeakCount>5</maxWeakCount>
      <stageThreshold>-1.0136202573776245e+00</stageThreshold>
      <weakClassifiers>
        <_>
          <internalNodes>
            0 -1 61 -590872833 -2158115 2102498773 -539494063
            -1307198565 -1076930023 527736063 791099903</internalNodes>
          <leafValues>
            -7.4352157115936279e-01 6.1102759838104248e-01</leafValues></_>
        <_>
          <internalNodes>
            0 -1 18 -134250497 2147188735 -1 -1 -557057 -1 -1073741825
            -129</internalNodes>
          <leafValues>
            -5.4806905984878540e-01 7.6140421628952026e-01</leafValues></_>
        <_>
          <internalNodes>
            0 -1 67 721123199 -1644725633 -139636257 -1084239457
            -86149701 -42234950 -877697717 -34385</internalNodes>
          <leafValues>
            -6.4094656705856323e-01 5.9858083724975586e-01</leafValues></_>
        <_>
          <internalNodes>
            0 -1 14 -536886789 -104692411 1879308763 2031180551
            -1064392305 -74727143 462560527 259457284</internalNodes>
          <leafValues>
            -8.2598620653152466e-01 4.6057799458503723e-01</leafValues></_>
        <_>
          <internalNodes>
            0 -1 114 798701343 785111419 -283519629 630645754 709836911
            -5734177 -1147729801 -272705</internalNodes>
          <leafValues>
            -7.8118848800659180e-01 4.6276965737342834e-01</leafValues></_></weakClassifiers></_>
    <!-- stage 4 -->
    <_>
      <maxWeakCount>4</maxWeakCount>
      <stageThreshold>-5.5420297384262085e-01</stageThreshold>
      <weakClassifiers>
        <_>
          <internalNodes>
            0 -1 90 767000575 1061157823 999561243 -1075858029 722078447
            -1182101493 781150975 -1025</internalNodes>
          <leafValues>
            -7.1040105819702148e-01 5.6431740522384644e-01</leafValues></_>
        <_>
          <internalNodes>
            0 -1 1 -157286401 856298679 -721301285 1938259951
            -1190579713 -1467754241 488848123 970948607</internalNodes>
          <leafValues>
            -7.6112663745880127e-01 4.6150174736976624e-01</leafValues></_>
        <_>
          <internalNodes>
            0 -1 43 779292503 2113368919 -112607361 1918590019
            2041264247 -7721925 -360482209 -67372097</internalNodes>
          <leafValues>
            -7.7756607532501221e-01 4.3568947911262512e-01</leafValues></_>
        <_>
          <internalNodes>
            0 -1 86 -118170123 940966005 286331671 144494771 -1337399080
            -1742503645 -24577576 -1802972677</internalNodes>
          <leafValues>
            -7.2307384014129639e-01 4.8163530230522156e-01</leafValues></_></weakClassifiers></_>
    <!-- stage 5 -->
    <_>
      <maxWeakCount>5</maxWeakCount>
      <stageThreshold>-7.1127325296401978e-01</stageThreshold>
      <weakClassifiers>
        <_>
          <internalNodes>
            0 -1 63 1577049599 435944703 -5 2147483647 2013232607
            2147483647 -1 -33554433</internalNodes>
          <leafValues>
            -5.4575520753860474e-01 6.4650058746337891e-01</leafValues></_>
        <_>
          <internalNodes>
            0 -1 91 801079167 -1349298977 -779231753 1059709339
            -1314160705 -6575975 -405012673 -1081083201</internalNodes>
          <leafValues>
            -6.1142295598983765e-01 5.3639161586761475e-01</leafValues></_>
        <_>
          <internalNodes>
            0 -1 36 -1086593231 -543706211 -520052641 -103387819
            -1587545635 -53549397 -1149109507 -537077276</internalNodes>
          <leafValues>
            -5.9659749269485474e-01 5.3786790370941162e-01</leafValues></_>
        <_>
          <internalNodes>
            0 -1 22 -872468611 2079293439 -16859137 -268435457 -33611905
            -838860801 -9 -1</internalNodes>
          <leafValues>
            -5.2645796537399292e-01 5.8359986543655396e-01</leafValues></_>
        <_>
          <internalNodes>
            0 -1 71 -684200178 -1081114611 1091752287 792432971
            -863450481 -1617395550 -1461388579 185326875</internalNodes>
          <leafValues>
            -6.4773517847061157e-01 4.5890265703201294e-01</leafValues></_></weakClassifiers></_>
    <!-- stage 6 -->
    <_>
      <maxWeakCount>5</maxWeakCount>
      <stageThreshold>-7.3070639371871948e-01</stageThreshold>
      <weakClassifiers>
        <_>
          <internalNodes>
            0 -1 85 -170162023 -1654970213 1074054481 -1252294557
            -1637499941 -673251325 -1204954913 1000028831</internalNodes>
          <leafValues>
            -8.0000001192092896e-01 4.1338911652565002e-01</leafValues></_>
        <_>
          <internalNodes>
            0 -1 29 -3179521 828066190 -1073249859 -698365750 -125087543
            -116867069 -796439841 -8659625</internalNodes>
          <leafValues>
            -5.7318621873855591e-01 5.4095309972763062e-01</leafValues></_>
        <_>
          <internalNodes>
            0 -1 41 -1410339409 -349213137 -536905741 -8198 -1885360241
            -805343234 127866783 -809548529</internalNodes>
          <leafValues>
            -4.6825143694877625e-01 5.9776562452316284e-01</leafValues></_>
        <_>
          <internalNodes>
            0 -1 110 -1347420289 -1884356737 -4235 -1460142145
            -1073795209 -1 -136358017 -2105410</internalNodes>
          <leafValues>
            -4.5739078521728516e-01 6.1072677373886108e-01</leafValues></_>
        <_>
          <internalNodes>
            0 -1 77 -1451344011 -141794349 -989605409 -6537169
            -1683416627 -21395321 -342891781 -1081454539</internalNodes>
          <leafValues>
            -5.4755383729934692e-01 5.0210499763488770e-01</leafValues></_></weakClassifiers></_>
    <!-- stage 7 -->
    <_>
      <maxWeakCount>5</maxWeakCount>
      <stageThreshold>-7.2200655937194824e-01</stageThreshold>
      <weakClassifiers>
        <_>
          <internalNodes>
            0 -1 46 -1358975185 -1363422985 -32771 -33561569 223068095
            -300168193 -1342193665 -570434049</internalNodes>
          <leafValues>
            -4.9547511339187622e-01 5.6351041793823242e-01</leafValues></_>
        <_>
          <internalNodes>
            0 -1 89 -940578902 -1346123993 -847969802 -338954282
            -1432449091 -1414811762 -1819685635 -67376465</internalNodes>
          <leafValues>
            -5.1811575889587402e-01 5.1360255479812622e-01</leafValues></_>
        <_>
          <internalNodes>
            0 -1 8 -50070669 -13269507 -1030689827 -539442287
            -1442680261 -119879186 1258517349 -313790095</internalNodes>
          <leafValues>
            -5.7797282934188843e-01 4.7118875384330750e-01</leafValues></_>
        <_>
          <internalNodes>
            0 -1 84 71270231 -1416161833 -91520677 -1075212009
            -1177962273 -68427654 -1160023057 -1073780785</internalNodes>
          <leafValues>
            -6.0241490602493286e-01 4.3279829621315002e-01</leafValues></_>
        <_>
          <internalNodes>
            0 -1 87 -102982571 -653111143 1359499607 2067255297
            -125251119 -340541310 -393700419 -1164422020</internalNodes>
          <leafValues>
            -5.8649253845214844e-01 4.4025373458862305e-01</leafValues></_></weakClassifiers></_>
    <!-- stage 8 -->
    <_>
      <maxWeakCount>7</maxWeakCount>
      <stageThreshold>-9.0317451953887939e-01</stageThreshold>
      <weakClassifiers>
        <_>
          <internalNodes>
            0 -1 62 2147475451 1070555071 -268369971 -138018817
            2032893947 2099953792 -1 -1</internalNodes>
          <leafValues>
            -4.8303166031837463e-01 5.5080831050872803e-01</leafValues></_>
        <_>
          <internalNodes>
            0 -1 52 -1566953869 -84610060 1493844447 -1082388039
            -1348355088 -1441397 -1836314691 -1879569203</internalNodes>
          <leafValues>
            -5.7099950313568115e-01 4.2260113358497620e-01</leafValues></_>
        <_>
          <internalNodes>
            0 -1 12 738135935 395428603 -1674914145 -554463083
            2135693439 -133068319 -24183237 -8721</internalNodes>
          <leafValues>
            -6.5161067247390747e-01 3.5529178380966187e-01</leafValues></_>
        <_>
          <internalNodes>
            0 -1 7 -137364522 -7765624 -2147395375 -686456622 1779143383
            1476953024 560992567 -2625195</internalNodes>
          <leafValues>
            -5.8542037010192871e-01 4.2524886131286621e-01</leafValues></_>
        <_>
          <internalNodes>
            0 -1 103 666319927 -1398894564 349559223 -316831330
            422095035 -1965326335 1274022039 -268435973</internalNodes>
          <leafValues>
            -6.6804015636444092e-01 3.4211072325706482e-01</leafValues></_>
        <_>
          <internalNodes>
            0 -1 111 -865085219 1608453213 -150995073 1392238431
            -50930211 -536936457 -16843025 -99418121</internalNodes>
          <leafValues>
            -4.2056605219841003e-01 5.4550027847290039e-01</leafValues></_>
        <_>
          <internalNodes>
            0 -1 25 -653148263 -209268588 16814553 -540880692
            -1996169025 -1472487285 -1464813331 -1615930891</internalNodes>
          <leafValues>
            -4.7242909669876099e-01 4.7274237871170044e-01</leafValues></_></weakClassifiers></_>
    <!-- stage 9 -->
    <_>
      <maxWeakCount>7</maxWeakCount>
      <stageThreshold>-9.3635427951812744e-01</stageThreshold>
      <weakClassifiers>
        <_>
          <internalNodes>
            0 -1 47 -5362 -139509905 -134220938 -8716429 2139086685
            -273678721 -537395205 -385</internalNodes>
          <leafValues>
            -4.5934066176414490e-01 5.5714285373687744e-01</leafValues></_>
        <_>
          <internalNodes>
            0 -1 59 719282047 522554525 -1673472161 852478223
            -1159052969 -1148482399 -653431493 -263589</internalNodes>
          <leafValues>
            -7.1464908123016357e-01 3.3554357290267944e-01</leafValues></_>
        <_>
          <internalNodes>
            0 -1 92 -4593 1602178319 -2 1527746367 -838996225
            -1929384083 -301991937 -262149</internalNodes>
          <leafValues>
            -4.0088304877281189e-01 6.1022549867630005e-01</leafValues></_>
        <_>
          <internalNodes>
            0 -1 53 -1149067407 -613886531 -183270001 -750927527
            -1744639007 -1415638901 1655423997 -1918083651</internalNodes>
          <leafValues>
            -5.4430705308914185e-01 4.2392241954803467e-01</leafValues></_>
        <_>
          <internalNodes>
            0 -1 11 646655871 -333866751 -662637059 -1497051053
            -241624969 -301268983 -490574979 -137913565</internalNodes>
          <leafValues>
            -7.2001951932907104e-01 3.0250796675682068e-01</leafValues></_>
        <_>
          <internalNodes>
            0 -1 27 -871840082 1422983177 -2130108033 -1114553037
            -1014247441 -1958214517 33745919 -270579269</internalNodes>
          <leafValues>
            -5.0011545419692993e-01 4.9181419610977173e-01</leafValues></_>
        <_>
          <internalNodes>
            0 -1 32 1783744999 1169809 16816405 520176257 1360597947
            -528430582 1744961579 -72693629</internalNodes>
          <leafValues>
            -5.5050200223922729e-01 4.1220358014106750e-01</leafValues></_></weakClassifiers></_>
    <!-- stage 10 -->
    <_>
      <maxWeakCount>7</maxWeakCount>
      <stageThreshold>-8.9328694343566895e-01</stageThreshold>
      <weakClassifiers>
        <_>
          <internalNodes>
            0 -1 26 -61133270 -3870243 -1525033319 2030391747 -389468753
            -2071261096 2043648959 -5248293</internalNodes>
          <leafValues>
            -5.5406314134597778e-01 4.5997017621994019e-01</leafValues></_>
        <_>
          <internalNodes>
            0 -1 100 -944814816 -473473185 -1686075939 -2912097
            -1777658767 -1031042039 -1446292571 -83887797</internalNodes>
          <leafValues>
            -5.1120263338088989e-01 4.3479514122009277e-01</leafValues></_>
        <_>
          <internalNodes>
            0 -1 108 -597928843 1406621079 1430911479 452319707
            -621872644 -608459861 -1173450020 -1170547989</internalNodes>
          <leafValues>
            -4.8271998763084412e-01 4.8335188627243042e-01</leafValues></_>
        <_>
          <internalNodes>
            0 -1 31 1516189567 2106837057 -1052535439 999309766
            -1064342405 -1174372319 -671004611 -70006778</internalNodes>
          <leafValues>
            -5.6993007659912109e-01 4.1968399286270142e-01</leafValues></_>
        <_>
          <internalNodes>
            0 -1 17 -1746029145 -794900324 -1560162085 -204565843
            -2004706645 -119895931 167819751 -10987</internalNodes>
          <leafValues>
            -5.1221323013305664e-01 4.2728841304779053e-01</leafValues></_>
        <_>
          <internalNodes>
            0 -1 44 -993725680 -603062012 -1589472643 1334380825
            -1475753183 -1170528248 -1688097874 772292631</internalNodes>
          <leafValues>
            -6.3069558143615723e-01 3.3673125505447388e-01</leafValues></_>
        <_>
          <internalNodes>
            0 -1 106 -1377993345 -1928079279 1367462175 -1185173361
            -226307841 -1450700670 -1953238857 -336872453</internalNodes>
          <leafValues>
            -5.0355654954910278e-01 4.6196416020393372e-01</leafValues></_></weakClassifiers></_>
    <!-- stage 11 -->
    <_>
      <maxWeakCount>7</maxWeakCount>
      <stageThreshold>-1.0997729301452637e+00</stageThreshold>
      <weakClassifiers>
        <_>
          <internalNodes>
            0 -1 80 -2132927115 -14810793 -686712417 -1073997605
            -1316479628 -1074198819 -886787096 -1087866499</internalNodes>
          <leafValues>
            -5.4687500000000000e-01 4.1586998105049133e-01</leafValues></_>
        <_>
          <internalNodes>
            0 -1 56 -1441689843 -82739170 -712379971 -70139811 192977039
            -387338230 176893951 -1610676961</internalNodes>
          <leafValues>
            -5.2634489536285400e-01 4.0842145681381226e-01</leafValues></_>
        <_>
          <internalNodes>
            0 -1 112 -673724161 1610176095 -603728617 143203391
            -637085512 -124010352 -133506577 -1978992514</internalNodes>
          <leafValues>
            -4.6115964651107788e-01 4.5053705573081970e-01</leafValues></_>
        <_>
          <internalNodes>
            0 -1 76 205397621 -2134060925 -603258657 902988489
            -1241493424 -1710645077 -1744749673 -1363910440</internalNodes>
          <leafValues>
            -7.5724577903747559e-01 3.0759650468826294e-01</leafValues></_>
        <_>
          <internalNodes>
            0 -1 83 -522860540 1225359620 -2130615844 18860831
            -472849701 -1969516362 -393175330 -1435766917</internalNodes>
          <leafValues>
            -6.3640213012695312e-01 2.9590690135955811e-01</leafValues></_>
        <_>
          <internalNodes>
            0 -1 13 -84741614 -119000075 -65545 -545406977 -2135913022
            -176138315 -1208717315 2071941983</internalNodes>
          <leafValues>
            -4.3769198656082153e-01 4.6620970964431763e-01</leafValues></_>
        <_>
          <internalNodes>
            0 -1 48 -421581570 955929428 -1206345630 739905629 -60335910
            -293580656 -134180114 -1081413957</internalNodes>
          <leafValues>
            -5.4644227027893066e-01 3.6843523383140564e-01</leafValues></_></weakClassifiers></_>
    <!-- stage 12 -->
    <_>
      <maxWeakCount>9</maxWeakCount>
      <stageThreshold>-1.1254547834396362e+00</stageThreshold>
      <weakClassifiers>
        <_>
          <internalNodes>
            0 -1 102 -4198596 -1091633410 -49296 -29448 268386101
            -1612713985 268375541 -10755</internalNodes>
          <leafValues>
            -4.4114285707473755e-01 4.9828571081161499e-01</leafValues></_>
        <_>
          <internalNodes>
            0 -1 64 1577842939 442421663 -1979547635 -880553853
            428679510 168208515 -1585410549 -7343925</internalNodes>
          <leafValues>
            -5.3402775526046753e-01 3.8777264952659607e-01</leafValues></_>
        <_>
          <internalNodes>
            0 -1 24 718815013 1875567071 -742304005 -270613543 714830493
            -1154776942 -18148559 -339837324</internalNodes>
          <leafValues>
            -6.2968879938125610e-01 3.2632026076316833e-01</leafValues></_>
        <_>
          <internalNodes>
            0 -1 104 -598206251 -2207457 -1023241835 -1638382797
            -926318496 2042839457 -258429972 -1095087113</internalNodes>
          <leafValues>
            -5.0855666399002075e-01 4.0047690272331238e-01</leafValues></_>
        <_>
          <internalNodes>
            0 -1 107 754956023 -1162450726 1493359007 -1619738479
            -1725236321 -24477487 -778390811 -1440678998</internalNodes>
          <leafValues>
            -5.0252813100814819e-01 4.0529385209083557e-01</leafValues></_>
        <_>
          <internalNodes>
            0 -1 40 -1550715479 -150941568 -721202743 -545046268
            797931918 -1174351231 164425947 265244869</internalNodes>
          <leafValues>
            -5.3869760036468506e-01 3.3936953544616699e-01</leafValues></_>
        <_>
          <internalNodes>
            0 -1 21 1805339479 -233316217 -176041827 -1723096765
            -123512794 872942104 -234682272 -336856758</internalNodes>
          <leafValues>
            -5.4075461626052856e-01 3.7726441025733948e-01</leafValues></_>
        <_>
          <internalNodes>
            0 -1 88 -273750900 2145879457 2147483390 926367531 805304063
            -1 -134236930 998195199</internalNodes>
          <leafValues>
            -4.5123097300529480e-01 4.5843553543090820e-01</leafValues></_>
        <_>
          <internalNodes>
            0 -1 70 -1935143567 -423865901 -1962818537 -42442723
            -1173998484 -1173405557 -1283113159 -1141108227</internalNodes>
          <leafValues>
            -6.5313059091567993e-01 3.0000641942024231e-01</leafValues></_></weakClassifiers></_>
    <!-- stage 13 -->
    <_>
      <maxWeakCount>8</maxWeakCount>
      <stageThreshold>-9.4886368513107300e-01</stageThreshold>
      <weakClassifiers>
        <_>
          <internalNodes>
            0 -1 20 979336823 -267812733 442375955 76236806 1485434227
            -2046639615 -644974309 -74456569</internalNodes>
          <leafValues>
            -6.0439562797546387e-01 3.5174795985221863e-01</leafValues></_>
        <_>
          <internalNodes>
            0 -1 42 -96803326 205984011 -229583526 -686765613 -489948417
            -1660704608 -242755137 -2364869</internalNodes>
          <leafValues>
            -5.1076543331146240e-01 4.0676864981651306e-01</leafValues></_>
        <_>
          <internalNodes>
            0 -1 113 149839189 501578032 -752627501 -112987867 680160421
            -1861533566 1658003947 -536871265</internalNodes>
          <leafValues>
            -6.5540868043899536e-01 3.1160798668861389e-01</leafValues></_>
        <_>
          <internalNodes>
            0 -1 98 -69498785 -708771501 285216991 536941915 -661814086
            -687808376 939840255 707407742</internalNodes>
          <leafValues>
            -6.0752284526824951e-01 3.1356754899024963e-01</leafValues></_>
        <_>
          <internalNodes>
            0 -1 69 -1401470633 -311731113 1359138975 -178458361
            -1994640887 -1690892152 1359496157 -1435352271</internalNodes>
          <leafValues>
            -5.3987294435501099e-01 3.5459011793136597e-01</leafValues></_>
        <_>
          <internalNodes>
            0 -1 114 -1409302721 -1478655983 -1856929189 1029036299
            -1467889097 -129400632 -892606350 -337907925</internalNodes>
          <leafValues>
            -4.6029761433601379e-01 4.2501387000083923e-01</leafValues></_>
        <_>
          <internalNodes>
            0 -1 54 -1978489547 -170225407 -738191173 -203976508
            806131103 -1144487221 277762493 536483093</internalNodes>
          <leafValues>
            -6.8000960350036621e-01 2.7529937028884888e-01</leafValues></_>
        <_>
          <internalNodes>
            0 -1 95 -1112887886 -1509289830 -805043788 -1366652360
            -2037526333 -2004171647 -617019311 -106168532</internalNodes>
          <leafValues>
            -5.5847251415252686e-01 3.4657663106918335e-01</leafValues></_></weakClassifiers></_>
    <!-- stage 14 -->
    <_>
      <maxWeakCount>7</maxWeakCount>
      <stageThreshold>-1.1245350837707520e+00</stageThreshold>
      <weakClassifiers>
        <_>
          <internalNodes>
            0 -1 4 -1063940645 -115801792 -2147335424 705288132
            -2112814869 -1509945203 579473763 258965375</internalNodes>
          <leafValues>
            -8.4061694145202637e-01 2.7700221538543701e-01</leafValues></_>
        <_>
          <internalNodes>
            0 -1 45 -1212945935 -542998531 -1 -657921 -1078263813
            -671088641 -1347510305 -1717871363</internalNodes>
          <leafValues>
            -4.3154391646385193e-01 4.8408469557762146e-01</leafValues></_>
        <_>
          <internalNodes>
            0 -1 65 -262533924 1740136463 1244136094 348543193 -16049064
            1277903232 -813770448 -1079362806</internalNodes>
          <leafValues>
            -6.0366451740264893e-01 3.4478965401649475e-01</leafValues></_>
        <_>
          <internalNodes>
            0 -1 68 231099519 244555857 -1065035491 1058357525
            2030594175 -2113273696 -1441125453 -75781477</internalNodes>
          <leafValues>
            -7.3721557855606079e-01 2.6206889748573303e-01</leafValues></_>
        <_>
          <internalNodes>
            0 -1 93 -842269694 1066486017 1409847756 1931231307
            134793457 -2118123453 -1962628923 -674508081</internalNodes>
          <leafValues>
            -4.9981188774108887e-01 4.3803486227989197e-01</leafValues></_>
        <_>
          <internalNodes>
            0 -1 55 -258832245 1430032528 1694617759 -682618639
            134944939 -591724416 1755877787 466489621</internalNodes>
          <leafValues>
            -4.7645735740661621e-01 3.9239248633384705e-01</leafValues></_>
        <_>
          <internalNodes>
            0 -1 28 1442184950 -1142014977 -386200014 -1149436934
            2138554363 -537395201 -55425 -1</internalNodes>
          <leafValues>
            -4.2081028223037720e-01 4.8703518509864807e-01</leafValues></_></weakClassifiers></_>
    <!-- stage 15 -->
    <_>
      <maxWeakCount>9</maxWeakCount>
      <stageThreshold>-1.5007848739624023e+00</stageThreshold>
      <weakClassifiers>
        <_>
          <internalNodes>
            0 -1 10 -8421377 -184123393 -268501023 -536871040 1913266667
            -64 -8404997 -69</internalNodes>
          <leafValues>
            -4.1584730148315430e-01 4.6245059370994568e-01</leafValues></_>
        <_>
          <internalNodes>
            0 -1 79 -267234959 1371816194 830570835 2064338976
            -250051664 2005534888 -1089817669 1058697531</internalNodes>
          <leafValues>
            -4.6999692916870117e-01 4.3170541524887085e-01</leafValues></_>
        <_>
          <internalNodes>
            0 -1 57 -1370575345 -528383863 -796275489 -62197743
            1417846794 -183860028 -1333689973 -81800565</internalNodes>
          <leafValues>
            -4.7102540731430054e-01 4.1774848103523254e-01</leafValues></_>
        <_>
          <internalNodes>
            0 -1 105 -506900362 -135986073 -2011679679 171266355
            42094676 -1266122613 -267854974 -1173691798</internalNodes>
          <leafValues>
            -4.5881828665733337e-01 4.3073806166648865e-01</leafValues></_>
        <_>
          <internalNodes>
            0 -1 0 -1343340567 517648467 -805185099 -94891898 831581391
            -1550090070 77736181 -541112220</internalNodes>
          <leafValues>
            -4.9171024560928345e-01 3.7744900584220886e-01</leafValues></_>
        <_>
          <internalNodes>
            0 -1 38 -760266825 -5308622 -268470275 -12626704 -1086341986
            -298912392 259470845 -179076</internalNodes>
          <leafValues>
            -3.9797168970108032e-01 4.7410428524017334e-01</leafValues></_>
        <_>
          <internalNodes>
            0 -1 49 806482589 524402851 268730449 427860096 1745182383
            -1148715008 -1165473719 -1446383473</internalNodes>
          <leafValues>
            -4.5857688784599304e-01 4.2410415410995483e-01</leafValues></_>
        <_>
          <internalNodes>
            0 -1 74 -788282398 -1144930228 -62914340 -243163767
            -1266102138 596148608 -1207959416 1001103497</internalNodes>
          <leafValues>
            -5.0255894660949707e-01 3.6438935995101929e-01</leafValues></_>
        <_>
          <internalNodes>
            0 -1 15 -611735369 -2125418029 -2147397595 -1026785076
            9134795 -1299576568 159947685 -604548939</internalNodes>
          <leafValues>
            -4.9248611927032471e-01 3.8509270548820496e-01</leafValues></_></weakClassifiers></_>
    <!-- stage 16 -->
    <_>
      <maxWeakCount>8</maxWeakCount>
      <stageThreshold>-1.5042300224304199e+00</stageThreshold>
      <weakClassifiers>
        <_>
          <internalNodes>
            0 -1 58 -554792712 -1086685325 -376901 1052377633 -16810242
            -32769 -81986 -9457689</internalNodes>
          <leafValues>
            -4.1214749217033386e-01 5.1932364702224731e-01</leafValues></_>
        <_>
          <internalNodes>
            0 -1 30 805388275 957546753 -1056956066 965742621 167862372
            -1031536504 -1467954926 -87447541</internalNodes>
          <leafValues>
            -5.5012637376785278e-01 3.8517642021179199e-01</leafValues></_>
        <_>
          <internalNodes>
            0 -1 99 -1894538240 -1584529280 822100128 -250413028
            -1987574909 -2009071486 -1448990175 -339799671</internalNodes>
          <leafValues>
            -5.7761549949645996e-01 3.6542871594429016e-01</leafValues></_>
        <_>
          <internalNodes>
            0 -1 75 1435750851 348406929 -1877911511 273223683 268697651
            722952 -931132900 177156104</internalNodes>
          <leafValues>
            -6.3037949800491333e-01 3.7098819017410278e-01</leafValues></_>
        <_>
          <internalNodes>
            0 -1 51 545931281 335544515 229955 559104009 -1843248999
            -1593110390 -2138931031 1039079711</internalNodes>
          <leafValues>
            -4.6037819981575012e-01 4.8398655652999878e-01</leafValues></_>
        <_>
          <internalNodes>
            0 -1 6 -1851770347 -511082486 268435595 -1719504619
            -2147450719 -1073209216 1082138885 -106397103</internalNodes>
          <leafValues>
            -6.3477307558059692e-01 3.4856992959976196e-01</leafValues></_>
        <_>
          <internalNodes>
            0 -1 73 -2011828060 1342531841 16780 385941568 159942921
            41975944 -1878998902 1603223819</internalNodes>
          <leafValues>
            -5.2355080842971802e-01 4.0212520956993103e-01</leafValues></_>
        <_>
          <internalNodes>
            0 -1 35 4822705 1489502336 1115439 -620756727 -2146432894
            -1743716214 168528027 -1727528700</internalNodes>
          <leafValues>
            -5.8601105213165283e-01 3.4698215126991272e-01</leafValues></_></weakClassifiers></_>
    <!-- stage 17 -->
    <_>
      <maxWeakCount>7</maxWeakCount>
      <stageThreshold>-8.8146376609802246e-01</stageThreshold>
      <weakClassifiers>
        <_>
          <internalNodes>
            0 -1 101 -250523262 429199362 -1073724404 1889075217
            268566626 1358962690 8429706 1895991562</internalNodes>
          <leafValues>
            -5.7856625318527222e-01 4.2425671219825745e-01</leafValues></_>
        <_>
          <internalNodes>
            0 -1 9 269386077 1358954496 -2013167607 293703680 1779599651
            -2147483520 335552649 474005762</internalNodes>
          <leafValues>
            -5.8379417657852173e-01 4.3722313642501831e-01</leafValues></_>
        <_>
          <internalNodes>
            0 -1 97 -1610001449 268435529 98373 419430419 -251631487
            -125730815 570589568 707807754</internalNodes>
          <leafValues>
            -5.4272001981735229e-01 4.5814952254295349e-01</leafValues></_>
        <_>
          <internalNodes>
            0 -1 78 -2137358153 4198400 16809987 471613696 -2147352532
            -1879014910 16908429 723582984</internalNodes>
          <leafValues>
            -5.4034692049026489e-01 5.0500309467315674e-01</leafValues></_>
        <_>
          <internalNodes>
            0 -1 37 -1079293267 -1509952 -1 -268674000 -1968523085
            -75858433 -684427781 -817897999</internalNodes>
          <leafValues>
            -3.9189928770065308e-01 6.8029844760894775e-01</leafValues></_>
        <_>
          <internalNodes>
            0 -1 23 226689051 285425670 276889601 -1073659903
            -1992212478 -1476395008 -2138568544 -1773010814</internalNodes>
          <leafValues>
            -7.4413889646530151e-01 3.3856874704360962e-01</leafValues></_>
        <_>
          <internalNodes>
            0 -1 95 -1526026207 -1585147640 1073815779 -989790080
            -2147123200 268500992 536887360 -208698741</internalNodes>
          <leafValues>
            -5.5724340677261353e-01 4.7811496257781982e-01</leafValues></_></weakClassifiers></_>
    <!-- stage 18 -->
    <_>
      <maxWeakCount>7</maxWeakCount>
      <stageThreshold>-9.0854179859161377e-01</stageThreshold>
      <weakClassifiers>
        <_>
          <internalNodes>
            0 -1 3 846506961 -1498268691 -65547 -1350975495 607243392
            -63799371 -806000772 -33648334</internalNodes>
          <leafValues>
            -4.1929322481155396e-01 6.9559031724929810e-01</leafValues></_>
        <_>
          <internalNodes>
            0 -1 94 1628276752 -1862270847 -1593835132 -788529136 8
            -2147483648 268435840 -486530935</internalNodes>
          <leafValues>
            -5.3005397319793701e-01 5.7692086696624756e-01</leafValues></_>
        <_>
          <internalNodes>
            0 -1 39 -1878996903 335544320 67108881 289538048 -1811939167
            -2139095031 526349 -1951776487</internalNodes>
          <leafValues>
            -4.3093985319137573e-01 7.4990195035934448e-01</leafValues></_>
        <_>
          <internalNodes>
            0 -1 66 1554910856 -1158987913 -272663943 1005731638
            -1090746728 2147417599 -1162437654 -1099027020</internalNodes>
          <leafValues>
            -5.5722171068191528e-01 6.1564135551452637e-01</leafValues></_>
        <_>
          <internalNodes>
            0 -1 34 2146231152 -723209 -268468353 -386728067 -327336587
            -1385038347 1635522005 -1056482177</internalNodes>
          <leafValues>
            -4.2587992548942566e-01 7.4431735277175903e-01</leafValues></_>
        <_>
          <internalNodes>
            0 -1 72 1348485314 857113187 587202559 1371093822 402621927
            -335560705 -1493178369 -1481903240</internalNodes>
          <leafValues>
            -3.7963998317718506e-01 7.9748058319091797e-01</leafValues></_>
        <_>
          <internalNodes>
            0 -1 82 -336559958 792017981 1602072428 477773557 -950192831
            -1384678028 804730062 -1946173456</internalNodes>
          <leafValues>
            -3.8737156987190247e-01 7.6094579696655273e-01</leafValues></_></weakClassifiers></_>
    <!-- stage 19 -->
    <_>
      <maxWeakCount>4</maxWeakCount>
      <stageThreshold>-1.0464670658111572e+00</stageThreshold>
      <weakClassifiers>
        <_>
          <internalNodes>
            0 -1 81 -1073721343 318767104 -1073741823 419430400 136
            -1979711488 1610612866 31621160</internalNodes>
          <leafValues>
            -5.6384062767028809e-01 7.8080415725708008e-01</leafValues></_>
        <_>
          <internalNodes>
            0 -1 96 1782310056 1044299518 83823697 -64396 536827301
            1069530879 234822352 -1879112068</internalNodes>
          <leafValues>
            -5.4120832681655884e-01 8.3053600788116455e-01</leafValues></_>
        <_>
          <internalNodes>
            0 -1 39 -1879031799 -738197504 1 272760832 16512 -2147483648
            526345 1260929281</internalNodes>
          <leafValues>
            -6.6358643770217896e-01 6.9945091009140015e-01</leafValues></_>
        <_>
          <internalNodes>
            0 -1 41 1075314817 289406976 -2147483644 1342177281
            -2147446760 -2147483504 16512 68198408</internalNodes>
          <leafValues>
            -6.4086902141571045e-01 7.6033121347427368e-01</leafValues></_></weakClassifiers></_></stages>
  <features>
    <_>
      <rect>
        0 0 1 1</rect></_>
    <_>
      <rect>
        0 0 2 6</rect></_>
    <_>
      <rect>
        0 0 3 6</rect></_>
    <_>
      <rect>
        0 0 5 2</rect></_>
    <_>
      <rect>
        0 0 6 5</rect></_>
    <_>
      <rect>
        0 3 6 3</rect></_>
    <_>
      <rect>
        0 6 1 1</rect></_>
    <_>
      <rect>
        0 6 2 1</rect></_>
    <_>
      <rect>
        0 7 1 1</rect></_>
    <_>
      <rect>
        0 7 2 2</rect></_>
    <_>
      <rect>
        0 10 1 3</rect></_>
    <_>
      <rect>
        0 15 1 1</rect></_>
    <_>
      <rect>
        0 16 1 1</rect></_>
    <_>
      <rect>
        1 0 5 2</rect></_>
    <_>
      <rect>
        1 3 3 3</rect></_>
    <_>
      <rect>
        1 4 1 1</rect></_>
    <_>
      <rect>
        1 4 1 2</rect></_>
    <_>
      <rect>
        1 5 1 1</rect></_>
    <_>
      <rect>
        1 8 1 4</rect></_>
    <_>
      <rect>
        1 8 6 4</rect></_>
    <_>
      <rect>
        1 9 4 3</rect></_>
    <_>
      <rect>
        1 12 1 1</rect></_>
    <_>
      <rect>
        1 15 1 1</rect></_>
    <_>
      <rect>
        1 17 1 1</rect></_>
    <_>
      <rect>
        2 0 1 1</rect></_>
    <_>
      <rect>
        2 4 1 1</rect></_>
    <_>
      <rect>
        2 7 3 2</rect></_>
    <_>
      <rect>
        2 8 3 1</rect></_>
    <_>
      <rect>
        2 9 4 2</rect></_>
    <_>
      <rect>
        2 11 1 3</rect></_>
    <_>
      <rect>
        2 13 2 1</rect></_>
    <_>
      <rect>
        2 14 1 1</rect></_>
    <_>
      <rect>
        2 14 6 2</rect></_>
    <_>
      <rect>
        2 16 1 1</rect></_>
    <_>
      <rect>
        3 0 4 4</rect></_>
    <_>
      <rect>
        3 2 2 1</rect></_>
    <_>
      <rect>
        3 3 1 1</rect></_>
    <_>
      <rect>
        3 6 1 1</rect></_>
    <_>
      <rect>
        3 6 2 1</rect></_>
    <_>
      <rect>
        3 6 3 1</rect></_>
    <_>
      <rect>
        3 7 1 1</rect></_>
    <_>
      <rect>
        3 7 2 1</rect></_>
    <_>
      <rect>
        3 9 2 1</rect></_>
    <_>
      <rect>
        3 17 1 1</rect></_>
    <_>
      <rect>
        4 0 5 2</rect></_>
    <_>
      <rect>
        4 4 1 1</rect></_>
    <_>
      <rect>
        4 8 1 1</rect></_>
    <_>
      <rect>
        4 9 2 1</rect></_>
    <_>
      <rect>
        4 10 1 1</rect></_>
    <_>
      <rect>
        4 14 4 2</rect></_>
    <_>
      <rect>
        4 17 1 1</rect></_>
    <_>
      <rect>
        5 0 2 2</rect></_>
    <_>
      <rect>
        5 2 2 1</rect></_>
    <_>
      <rect>
        5 4 1 1</rect></_>
    <_>
      <rect>
        5 6 1 1</rect></_>
    <_>
      <rect>
        5 6 2 1</rect></_>
    <_>
      <rect>
        5 7 1 1</rect></_>
    <_>
      <rect>
        5 8 1 1</rect></_>
    <_>
      <rect>
        5 8 1 2</rect></_>
    <_>
      <rect>
        5 17 2 1</rect></_>
    <_>
      <rect>
        6 0 3 6</rect></_>
    <_>
      <rect>
        6 2 4 4</rect></_>
    <_>
      <rect>
        6 5 3 5</rect></_>
    <_>
      <rect>
        6 7 3 3</rect></_>
    <_>
      <rect>
        6 8 3 3</rect></_>
    <_>
      <rect>
        6 10 1 1</rect></_>
    <_>
      <rect>
        6 11 1 1</rect></_>
    <_>
      <rect>
        6 17 1 1</rect></_>
    <_>
      <rect>
        6 17 2 1</rect></_>
    <_>
      <rect>
        7 0 2 1</rect></_>
    <_>
      <rect>
        7 1 1 1</rect></_>
    <_>
      <rect>
        8 5 4 2</rect></_>
    <_>
      <rect>
        8 7 2 1</rect></_>
    <_>
      <rect>
        8 8 2 1</rect></_>
    <_>
      <rect>
        8 9 4 1</rect></_>
    <_>
      <rect>
        8 10 2 1</rect></_>
    <_>
      <rect>
        8 15 1 1</rect></_>
    <_>
      <rect>
        9 0 1 1</rect></_>
    <_>
      <rect>
        9 0 3 1</rect></_>
    <_>
      <rect>
        9 0 3 2</rect></_>
    <_>
      <rect>
        9 1 2 1</rect></_>
    <_>
      <rect>
        9 6 2 1</rect></_>
    <_>
      <rect>
        9 9 1 1</rect></_>
    <_>
      <rect>
        10 7 3 1</rect></_>
    <_>
      <rect>
        10 17 1 1</rect></_>
    <_>
      <rect>
        11 0 3 6</rect></_>
    <_>
      <rect>
        11 2 3 2</rect></_>
    <_>
      <rect>
        11 4 1 1</rect></_>
    <_>
      <rect>
        11 7 3 2</rect></_>
    <_>
      <rect>
        11 9 2 1</rect></_>
    <_>
      <rect>
        11 11 3 3</rect></_>
    <_>
      <rect>
        11 17 1 1</rect></_>
    <_>
      <rect>
        12 8 2 1</rect></_>
    <_>
      <rect>
        12 9 2 1</rect></_>
    <_>
      <rect>
        12 9 2 2</rect></_>
    <_>
      <rect>
        12 10 1 1</rect></_>
    <_>
      <rect>
        12 10 2 2</rect></_>
    <_>
      <rect>
        13 0 2 1</rect></_>
    <_>
      <rect>
        13 5 2 2</rect></_>
    <_>
      <rect>
        13 10 1 1</rect></_>
    <_>
      <rect>
        14 9 1 1</rect></_>
    <_>
      <rect>
        14 9 2 1</rect></_>
    <_>
      <rect>
        14 10 1 1</rect></_>
    <_>
      <rect>
        14 15 2 1</rect></_>
    <_>
      <rect>
        15 4 1 1</rect></_>
    <_>
      <rect>
        15 7 1 1</rect></_>
    <_>
      <rect>
        15 16 1 1</rect></_>
    <_>
      <rect>
        16 0 1 1</rect></_>
    <_>
      <rect>
        16 5 1 1</rect></_>
    <_>
      <rect>
        16 16 1 1</rect></_>
    <_>
      <rect>
        16 17 1 1</rect></_>
    <_>
      <rect>
        17 5 1 1</rect></_>
    <_>
      <rect>
        17 7 1 1</rect></_>
    <_>
      <rect>
        17 11 1 2</rect></_>
    <_>
      <rect>
        17 17 1 1</rect></_></features></cascade>
</opencv_storage>
