<?xml version="1.0"?>
<opencv_storage>
<stage15>
  <maxWeakCount>9</maxWeakCount>
  <stageThreshold>-1.5007848739624023e+00</stageThreshold>
  <weakClassifiers>
    <_>
      <internalNodes>
        0 -1 290 -8421377 -184123393 -268501023 -536871040 1913266667
        -64 -8404997 -69</internalNodes>
      <leafValues>
        -4.1584730148315430e-01 4.6245059370994568e-01</leafValues></_>
    <_>
      <internalNodes>
        0 -1 2848 -267234959 1371816194 830570835 2064338976 -250051664
        2005534888 -1089817669 1058697531</internalNodes>
      <leafValues>
        -4.6999692916870117e-01 4.3170541524887085e-01</leafValues></_>
    <_>
      <internalNodes>
        0 -1 1969 -1370575345 -528383863 -796275489 -62197743 1417846794
        -183860028 -1333689973 -81800565</internalNodes>
      <leafValues>
        -4.7102540731430054e-01 4.1774848103523254e-01</leafValues></_>
    <_>
      <internalNodes>
        0 -1 3817 -506900362 -135986073 -2011679679 171266355 42094676
        -1266122613 -267854974 -1173691798</internalNodes>
      <leafValues>
        -4.5881828665733337e-01 4.3073806166648865e-01</leafValues></_>
    <_>
      <internalNodes>
        0 -1 0 -1343340567 517648467 -805185099 -94891898 831581391
        -1550090070 77736181 -541112220</internalNodes>
      <leafValues>
        -4.9171024560928345e-01 3.7744900584220886e-01</leafValues></_>
    <_>
      <internalNodes>
        0 -1 1303 -760266825 -5308622 -268470275 -12626704 -1086341986
        -298912392 259470845 -179076</internalNodes>
      <leafValues>
        -3.9797168970108032e-01 4.7410428524017334e-01</leafValues></_>
    <_>
      <internalNodes>
        0 -1 1746 806482589 524402851 268730449 427860096 1745182383
        -1148715008 -1165473719 -1446383473</internalNodes>
      <leafValues>
        -4.5857688784599304e-01 4.2410415410995483e-01</leafValues></_>
    <_>
      <internalNodes>
        0 -1 2772 -788282398 -1144930228 -62914340 -243163767
        -1266102138 596148608 -1207959416 1001103497</internalNodes>
      <leafValues>
        -5.0255894660949707e-01 3.6438935995101929e-01</leafValues></_>
    <_>
      <internalNodes>
        0 -1 516 -611735369 -2125418029 -2147397595 -1026785076 9134795
        -1299576568 159947685 -604548939</internalNodes>
      <leafValues>
        -4.9248611927032471e-01 3.8509270548820496e-01</leafValues></_></weakClassifiers></stage15>
</opencv_storage>
