<?xml version="1.0"?>
<opencv_storage>
<stage9>
  <maxWeakCount>7</maxWeakCount>
  <stageThreshold>-9.3635427951812744e-01</stageThreshold>
  <weakClassifiers>
    <_>
      <internalNodes>
        0 -1 1677 -5362 -139509905 -134220938 -8716429 2139086685
        -273678721 -537395205 -385</internalNodes>
      <leafValues>
        -4.5934066176414490e-01 5.5714285373687744e-01</leafValues></_>
    <_>
      <internalNodes>
        0 -1 2075 719282047 522554525 -1673472161 852478223 -1159052969
        -1148482399 -653431493 -263589</internalNodes>
      <leafValues>
        -7.1464908123016357e-01 3.3554357290267944e-01</leafValues></_>
    <_>
      <internalNodes>
        0 -1 3488 -4593 1602178319 -2 1527746367 -838996225 -1929384083
        -301991937 -262149</internalNodes>
      <leafValues>
        -4.0088304877281189e-01 6.1022549867630005e-01</leafValues></_>
    <_>
      <internalNodes>
        0 -1 1879 -1149067407 -613886531 -183270001 -750927527
        -1744639007 -1415638901 1655423997 -1918083651</internalNodes>
      <leafValues>
        -5.4430705308914185e-01 4.2392241954803467e-01</leafValues></_>
    <_>
      <internalNodes>
        0 -1 360 646655871 -333866751 -662637059 -1497051053 -241624969
        -301268983 -490574979 -137913565</internalNodes>
      <leafValues>
        -7.2001951932907104e-01 3.0250796675682068e-01</leafValues></_>
    <_>
      <internalNodes>
        0 -1 1010 -871840082 1422983177 -2130108033 -1114553037
        -1014247441 -1958214517 33745919 -270579269</internalNodes>
      <leafValues>
        -5.0011545419692993e-01 4.9181419610977173e-01</leafValues></_>
    <_>
      <internalNodes>
        0 -1 1115 1783744999 1169809 16816405 520176257 1360597947
        -528430582 1744961579 -72693629</internalNodes>
      <leafValues>
        -5.5050200223922729e-01 4.1220358014106750e-01</leafValues></_></weakClassifiers></stage9>
</opencv_storage>
