<?xml version="1.0"?>
<opencv_storage>
<stage18>
  <maxWeakCount>7</maxWeakCount>
  <stageThreshold>-9.0854179859161377e-01</stageThreshold>
  <weakClassifiers>
    <_>
      <internalNodes>
        0 -1 25 846506961 -1498268691 -65547 -1350975495 607243392
        -63799371 -806000772 -33648334</internalNodes>
      <leafValues>
        -4.1929322481155396e-01 6.9559031724929810e-01</leafValues></_>
    <_>
      <internalNodes>
        0 -1 3496 1628276752 -1862270847 -1593835132 -788529136 8
        -2147483648 268435840 -486530935</internalNodes>
      <leafValues>
        -5.3005397319793701e-01 5.7692086696624756e-01</leafValues></_>
    <_>
      <internalNodes>
        0 -1 1307 -1878996903 335544320 67108881 289538048 -1811939167
        -2139095031 526349 -1951776487</internalNodes>
      <leafValues>
        -4.3093985319137573e-01 7.4990195035934448e-01</leafValues></_>
    <_>
      <internalNodes>
        0 -1 2283 1554910856 -1158987913 -272663943 1005731638
        -1090746728 2147417599 -1162437654 -1099027020</internalNodes>
      <leafValues>
        -5.5722171068191528e-01 6.1564135551452637e-01</leafValues></_>
    <_>
      <internalNodes>
        0 -1 1155 2146231152 -723209 -268468353 -386728067 -327336587
        -1385038347 1635522005 -1056482177</internalNodes>
      <leafValues>
        -4.2587992548942566e-01 7.4431735277175903e-01</leafValues></_>
    <_>
      <internalNodes>
        0 -1 2735 1348485314 857113187 587202559 1371093822 402621927
        -335560705 -1493178369 -1481903240</internalNodes>
      <leafValues>
        -3.7963998317718506e-01 7.9748058319091797e-01</leafValues></_>
    <_>
      <internalNodes>
        0 -1 2970 -336559958 792017981 1602072428 477773557 -950192831
        -1384678028 804730062 -1946173456</internalNodes>
      <leafValues>
        -3.8737156987190247e-01 7.6094579696655273e-01</leafValues></_></weakClassifiers></stage18>
</opencv_storage>
