<?xml version="1.0"?>
<opencv_storage>
<stage11>
  <maxWeakCount>7</maxWeakCount>
  <stageThreshold>-1.0997729301452637e+00</stageThreshold>
  <weakClassifiers>
    <_>
      <internalNodes>
        0 -1 2859 -2132927115 -14810793 -686712417 -1073997605
        -1316479628 -1074198819 -886787096 -1087866499</internalNodes>
      <leafValues>
        -5.4687500000000000e-01 4.1586998105049133e-01</leafValues></_>
    <_>
      <internalNodes>
        0 -1 1949 -1441689843 -82739170 -712379971 -70139811 192977039
        -387338230 176893951 -1610676961</internalNodes>
      <leafValues>
        -5.2634489536285400e-01 4.0842145681381226e-01</leafValues></_>
    <_>
      <internalNodes>
        0 -1 3943 -673724161 1610176095 -603728617 143203391 -637085512
        -124010352 -133506577 -1978992514</internalNodes>
      <leafValues>
        -4.6115964651107788e-01 4.5053705573081970e-01</leafValues></_>
    <_>
      <internalNodes>
        0 -1 2823 205397621 -2134060925 -603258657 902988489 -1241493424
        -1710645077 -1744749673 -1363910440</internalNodes>
      <leafValues>
        -7.5724577903747559e-01 3.0759650468826294e-01</leafValues></_>
    <_>
      <internalNodes>
        0 -1 3143 -522860540 1225359620 -2130615844 18860831 -472849701
        -1969516362 -393175330 -1435766917</internalNodes>
      <leafValues>
        -6.3640213012695312e-01 2.9590690135955811e-01</leafValues></_>
    <_>
      <internalNodes>
        0 -1 403 -84741614 -119000075 -65545 -545406977 -2135913022
        -176138315 -1208717315 2071941983</internalNodes>
      <leafValues>
        -4.3769198656082153e-01 4.6620970964431763e-01</leafValues></_>
    <_>
      <internalNodes>
        0 -1 1689 -421581570 955929428 -1206345630 739905629 -60335910
        -293580656 -134180114 -1081413957</internalNodes>
      <leafValues>
        -5.4644227027893066e-01 3.6843523383140564e-01</leafValues></_></weakClassifiers></stage11>
</opencv_storage>
