<?xml version="1.0"?>
<opencv_storage>
<stage14>
  <maxWeakCount>7</maxWeakCount>
  <stageThreshold>-1.1245350837707520e+00</stageThreshold>
  <weakClassifiers>
    <_>
      <internalNodes>
        0 -1 34 -1063940645 -115801792 -2147335424 705288132 -2112814869
        -1509945203 579473763 258965375</internalNodes>
      <leafValues>
        -8.4061694145202637e-01 2.7700221538543701e-01</leafValues></_>
    <_>
      <internalNodes>
        0 -1 1564 -1212945935 -542998531 -1 -657921 -1078263813
        -671088641 -1347510305 -1717871363</internalNodes>
      <leafValues>
        -4.3154391646385193e-01 4.8408469557762146e-01</leafValues></_>
    <_>
      <internalNodes>
        0 -1 2271 -262533924 1740136463 1244136094 348543193 -16049064
        1277903232 -813770448 -1079362806</internalNodes>
      <leafValues>
        -6.0366451740264893e-01 3.4478965401649475e-01</leafValues></_>
    <_>
      <internalNodes>
        0 -1 2328 231099519 244555857 -1065035491 1058357525 2030594175
        -2113273696 -1441125453 -75781477</internalNodes>
      <leafValues>
        -7.3721557855606079e-01 2.6206889748573303e-01</leafValues></_>
    <_>
      <internalNodes>
        0 -1 3495 -842269694 1066486017 1409847756 1931231307 134793457
        -2118123453 -1962628923 -674508081</internalNodes>
      <leafValues>
        -4.9981188774108887e-01 4.3803486227989197e-01</leafValues></_>
    <_>
      <internalNodes>
        0 -1 1933 -258832245 1430032528 1694617759 -682618639 134944939
        -591724416 1755877787 466489621</internalNodes>
      <leafValues>
        -4.7645735740661621e-01 3.9239248633384705e-01</leafValues></_>
    <_>
      <internalNodes>
        0 -1 1036 1442184950 -1142014977 -386200014 -1149436934
        2138554363 -537395201 -55425 -1</internalNodes>
      <leafValues>
        -4.2081028223037720e-01 4.8703518509864807e-01</leafValues></_></weakClassifiers></stage14>
</opencv_storage>
