<?xml version="1.0"?>
<opencv_storage>
<stage12>
  <maxWeakCount>9</maxWeakCount>
  <stageThreshold>-1.1254547834396362e+00</stageThreshold>
  <weakClassifiers>
    <_>
      <internalNodes>
        0 -1 3750 -4198596 -1091633410 -49296 -29448 268386101
        -1612713985 268375541 -10755</internalNodes>
      <leafValues>
        -4.4114285707473755e-01 4.9828571081161499e-01</leafValues></_>
    <_>
      <internalNodes>
        0 -1 2253 1577842939 442421663 -1979547635 -880553853 428679510
        168208515 -1585410549 -7343925</internalNodes>
      <leafValues>
        -5.3402775526046753e-01 3.8777264952659607e-01</leafValues></_>
    <_>
      <internalNodes>
        0 -1 756 718815013 1875567071 -742304005 -270613543 714830493
        -1154776942 -18148559 -339837324</internalNodes>
      <leafValues>
        -6.2968879938125610e-01 3.2632026076316833e-01</leafValues></_>
    <_>
      <internalNodes>
        0 -1 3803 -598206251 -2207457 -1023241835 -1638382797 -926318496
        2042839457 -258429972 -1095087113</internalNodes>
      <leafValues>
        -5.0855666399002075e-01 4.0047690272331238e-01</leafValues></_>
    <_>
      <internalNodes>
        0 -1 3843 754956023 -1162450726 1493359007 -1619738479
        -1725236321 -24477487 -778390811 -1440678998</internalNodes>
      <leafValues>
        -5.0252813100814819e-01 4.0529385209083557e-01</leafValues></_>
    <_>
      <internalNodes>
        0 -1 1319 -1550715479 -150941568 -721202743 -545046268 797931918
        -1174351231 164425947 265244869</internalNodes>
      <leafValues>
        -5.3869760036468506e-01 3.3936953544616699e-01</leafValues></_>
    <_>
      <internalNodes>
        0 -1 702 1805339479 -233316217 -176041827 -1723096765 -123512794
        872942104 -234682272 -336856758</internalNodes>
      <leafValues>
        -5.4075461626052856e-01 3.7726441025733948e-01</leafValues></_>
    <_>
      <internalNodes>
        0 -1 3333 -273750900 2145879457 2147483390 926367531 805304063
        -1 -134236930 998195199</internalNodes>
      <leafValues>
        -4.5123097300529480e-01 4.5843553543090820e-01</leafValues></_>
    <_>
      <internalNodes>
        0 -1 2355 -1935143567 -423865901 -1962818537 -42442723
        -1173998484 -1173405557 -1283113159 -1141108227</internalNodes>
      <leafValues>
        -6.5313059091567993e-01 3.0000641942024231e-01</leafValues></_></weakClassifiers></stage12>
</opencv_storage>
