<?xml version="1.0"?>
<opencv_storage>
<stage10>
  <maxWeakCount>7</maxWeakCount>
  <stageThreshold>-8.9328694343566895e-01</stageThreshold>
  <weakClassifiers>
    <_>
      <internalNodes>
        0 -1 987 -61133270 -3870243 -1525033319 2030391747 -389468753
        -2071261096 2043648959 -5248293</internalNodes>
      <leafValues>
        -5.5406314134597778e-01 4.5997017621994019e-01</leafValues></_>
    <_>
      <internalNodes>
        0 -1 3744 -944814816 -473473185 -1686075939 -2912097 -1777658767
        -1031042039 -1446292571 -83887797</internalNodes>
      <leafValues>
        -5.1120263338088989e-01 4.3479514122009277e-01</leafValues></_>
    <_>
      <internalNodes>
        0 -1 3871 -597928843 1406621079 1430911479 452319707 -621872644
        -608459861 -1173450020 -1170547989</internalNodes>
      <leafValues>
        -4.8271998763084412e-01 4.8335188627243042e-01</leafValues></_>
    <_>
      <internalNodes>
        0 -1 1104 1516189567 2106837057 -1052535439 999309766
        -1064342405 -1174372319 -671004611 -70006778</internalNodes>
      <leafValues>
        -5.6993007659912109e-01 4.1968399286270142e-01</leafValues></_>
    <_>
      <internalNodes>
        0 -1 546 -1746029145 -794900324 -1560162085 -204565843
        -2004706645 -119895931 167819751 -10987</internalNodes>
      <leafValues>
        -5.1221323013305664e-01 4.2728841304779053e-01</leafValues></_>
    <_>
      <internalNodes>
        0 -1 1474 -993725680 -603062012 -1589472643 1334380825
        -1475753183 -1170528248 -1688097874 772292631</internalNodes>
      <leafValues>
        -6.3069558143615723e-01 3.3673125505447388e-01</leafValues></_>
    <_>
      <internalNodes>
        0 -1 3841 -1377993345 -1928079279 1367462175 -1185173361
        -226307841 -1450700670 -1953238857 -336872453</internalNodes>
      <leafValues>
        -5.0355654954910278e-01 4.6196416020393372e-01</leafValues></_></weakClassifiers></stage10>
</opencv_storage>
