<?xml version="1.0"?>
<opencv_storage>
<stage17>
  <maxWeakCount>7</maxWeakCount>
  <stageThreshold>-8.8146376609802246e-01</stageThreshold>
  <weakClassifiers>
    <_>
      <internalNodes>
        0 -1 3747 -250523262 429199362 -1073724404 1889075217 268566626
        1358962690 8429706 1895991562</internalNodes>
      <leafValues>
        -5.7856625318527222e-01 4.2425671219825745e-01</leafValues></_>
    <_>
      <internalNodes>
        0 -1 227 269386077 1358954496 -2013167607 293703680 1779599651
        -2147483520 335552649 474005762</internalNodes>
      <leafValues>
        -5.8379417657852173e-01 4.3722313642501831e-01</leafValues></_>
    <_>
      <internalNodes>
        0 -1 3534 -1610001449 268435529 98373 419430419 -251631487
        -125730815 570589568 707807754</internalNodes>
      <leafValues>
        -5.4272001981735229e-01 4.5814952254295349e-01</leafValues></_>
    <_>
      <internalNodes>
        0 -1 2847 -2137358153 4198400 16809987 471613696 -2147352532
        -1879014910 16908429 723582984</internalNodes>
      <leafValues>
        -5.4034692049026489e-01 5.0500309467315674e-01</leafValues></_>
    <_>
      <internalNodes>
        0 -1 1299 -1079293267 -1509952 -1 -268674000 -1968523085
        -75858433 -684427781 -817897999</internalNodes>
      <leafValues>
        -3.9189928770065308e-01 6.8029844760894775e-01</leafValues></_>
    <_>
      <internalNodes>
        0 -1 750 226689051 285425670 276889601 -1073659903 -1992212478
        -1476395008 -2138568544 -1773010814</internalNodes>
      <leafValues>
        -7.4413889646530151e-01 3.3856874704360962e-01</leafValues></_>
    <_>
      <internalNodes>
        0 -1 3498 -1526026207 -1585147640 1073815779 -989790080
        -2147123200 268500992 536887360 -208698741</internalNodes>
      <leafValues>
        -5.5724340677261353e-01 4.7811496257781982e-01</leafValues></_></weakClassifiers></stage17>
</opencv_storage>
