<?xml version="1.0"?>
<opencv_storage>
<stage3>
  <maxWeakCount>4</maxWeakCount>
  <stageThreshold>-1.2326353788375854e+00</stageThreshold>
  <weakClassifiers>
    <_>
      <internalNodes>
        0 -1 2148 -257 -21505 -1 2147348479 -1073762305 -1073746945
        805306367 254225791</internalNodes>
      <leafValues>
        -6.6395664215087891e-01 6.8436801433563232e-01</leafValues></_>
    <_>
      <internalNodes>
        0 -1 3905 668941631 802681855 1871697279 -302540289 -1152461953
        -39092037 -74225217 -8241</internalNodes>
      <leafValues>
        -6.8525278568267822e-01 6.2591522932052612e-01</leafValues></_>
    <_>
      <internalNodes>
        0 -1 5 -1 -32897 -1 -36993 -32769 -1 -32769 -33409</internalNodes>
      <leafValues>
        -5.1852267980575562e-01 7.1626639366149902e-01</leafValues></_>
    <_>
      <internalNodes>
        0 -1 372 719269687 247451959 -967585573 -287837409 1760263511
        -107755325 -202663809 -268436625</internalNodes>
      <leafValues>
        -7.1322786808013916e-01 4.7573667764663696e-01</leafValues></_></weakClassifiers></stage3>
</opencv_storage>
