<?xml version="1.0"?>
<opencv_storage>
<stage16>
  <maxWeakCount>9</maxWeakCount>
  <stageThreshold>-6.4347630739212036e-01</stageThreshold>
  <weakClassifiers>
    <_>
      <internalNodes>
        0 -1 2535 -730706748 -13779213 -1426391078 1609203608
        -2131688348 -285311651 -1879167320 -1078297795</internalNodes>
      <leafValues>
        -3.3178654313087463e-01 5.8615005016326904e-01</leafValues></_>
    <_>
      <internalNodes>
        0 -1 3621 -579737056 1490329921 -784297651 -1794801400
        1384646753 -2105540607 -2147473240 -955694961</internalNodes>
      <leafValues>
        -4.3741995096206665e-01 4.9709501862525940e-01</leafValues></_>
    <_>
      <internalNodes>
        0 -1 206 -780089455 -251658240 536891405 2097774616 -1878521155
        1242040320 9143 1652768896</internalNodes>
      <leafValues>
        -5.8357447385787964e-01 3.4528052806854248e-01</leafValues></_>
    <_>
      <internalNodes>
        0 -1 3880 -774567809 365248512 -922639941 143855905 -1608482688
        -335544192 -1442282878 -98936179</internalNodes>
      <leafValues>
        -4.9003866314888000e-01 4.1139310598373413e-01</leafValues></_>
    <_>
      <internalNodes>
        0 -1 2275 269219034 -1864368062 -1879047925 -1858011132
        453509348 -1971158656 -2012737016 -1694408561</internalNodes>
      <leafValues>
        -4.4908258318901062e-01 4.4642361998558044e-01</leafValues></_>
    <_>
      <internalNodes>
        0 -1 3143 -1873715200 486867011 -796848043 17518593 -536837927
        -528465784 -2137483044 -1731206590</internalNodes>
      <leafValues>
        -4.9948677420616150e-01 4.0655410289764404e-01</leafValues></_>
    <_>
      <internalNodes>
        0 -1 319 1392885847 370999504 134220060 1114137 1073793044
        -922746880 1090570240 -1459535808</internalNodes>
      <leafValues>
        -4.6074187755584717e-01 4.4390529394149780e-01</leafValues></_>
    <_>
      <internalNodes>
        0 -1 2280 -750349935 285212816 8392888 -749711360 8424072
        16809984 151521450 -628555768</internalNodes>
      <leafValues>
        -4.3540230393409729e-01 4.8469108343124390e-01</leafValues></_>
    <_>
      <internalNodes>
        0 -1 3842 -1496361385 -1887338351 17895571 -423559160
        -1962213374 -2142601084 268452579 -1710514037</internalNodes>
      <leafValues>
        -5.8777701854705811e-01 3.8131722807884216e-01</leafValues></_></weakClassifiers></stage16>
</opencv_storage>
