<?xml version="1.0"?>
<opencv_storage>
<stage10>
  <maxWeakCount>7</maxWeakCount>
  <stageThreshold>-8.9027571678161621e-01</stageThreshold>
  <weakClassifiers>
    <_>
      <internalNodes>
        0 -1 813 -649866941 -245501493 211 -1618406585 -962399518
        -385859093 84547919 88556815</internalNodes>
      <leafValues>
        -6.2500000000000000e-01 4.7664746642112732e-01</leafValues></_>
    <_>
      <internalNodes>
        0 -1 3943 -16786177 -545825417 -17039425 414941179 -16778100
        -553656579 -805634305 -94699526</internalNodes>
      <leafValues>
        -3.6222720146179199e-01 5.9286493062973022e-01</leafValues></_>
    <_>
      <internalNodes>
        0 -1 1116 -285315201 -412160129 -838860817 1807220735 -49857
        -67108937 -679542785 -293601281</internalNodes>
      <leafValues>
        -4.3440529704093933e-01 4.7480541467666626e-01</leafValues></_>
    <_>
      <internalNodes>
        0 -1 2859 -1934093263 -312737774 -1223173761 -573173158
        -343402127 -1683379905 -624894980 -1087870599</internalNodes>
      <leafValues>
        -5.9502738714218140e-01 3.6129572987556458e-01</leafValues></_>
    <_>
      <internalNodes>
        0 -1 1362 -20978166 1246664961 299287774 -117380288 -1010136369
        461898368 755096047 -3417361</internalNodes>
      <leafValues>
        -4.9097192287445068e-01 4.5107007026672363e-01</leafValues></_>
    <_>
      <internalNodes>
        0 -1 3650 570318133 -1578569443 -1860976289 -1085947899
        1371674871 -1149140864 1703639187 -309366593</internalNodes>
      <leafValues>
        -6.9160705804824829e-01 2.9485762119293213e-01</leafValues></_>
    <_>
      <internalNodes>
        0 -1 2784 -287986902 1463915928 -1005510582 -1114308591
        1487452401 1501726984 1217047032 -68437303</internalNodes>
      <leafValues>
        -4.9861270189285278e-01 4.1176065802574158e-01</leafValues></_></weakClassifiers></stage10>
</opencv_storage>
